digraph Tree {
node [shape=box, style="filled, rounded", color="black", fontname=helvetica] ;
edge [fontname=helvetica] ;
0 [label="age <= 28.5\ngini = 0.454\nsamples = 768\nvalue = [500, 268]\nclass = 0", fillcolor="#f3c5a3"] ;
1 [label="glucose <= 127.5\ngini = 0.312\nsamples = 367\nvalue = [296, 71]\nclass = 0", fillcolor="#eb9f68"] ;
0 -> 1 [labeldistance=2.5, labelangle=45, headlabel="True"] ;
2 [label="bmi <= 30.95\ngini = 0.155\nsamples = 271\nvalue = [248, 23]\nclass = 0", fillcolor="#e78d4b"] ;
1 -> 2 ;
3 [label="pregnancies <= 4.5\ngini = 0.028\nsamples = 143\nvalue = [141, 2]\nclass = 0", fillcolor="#e5833c"] ;
2 -> 3 ;
4 [label="dpf <= 0.672\ngini = 0.015\nsamples = 135\nvalue = [134, 1]\nclass = 0", fillcolor="#e5823a"] ;
3 -> 4 ;
5 [label="gini = 0.0\nsamples = 117\nvalue = [117, 0]\nclass = 0", fillcolor="#e58139"] ;
4 -> 5 ;
6 [label="bmi <= 26.65\ngini = 0.105\nsamples = 18\nvalue = [17, 1]\nclass = 0", fillcolor="#e78845"] ;
4 -> 6 ;
7 [label="gini = 0.245\nsamples = 7\nvalue = [6, 1]\nclass = 0", fillcolor="#e9965a"] ;
6 -> 7 ;
8 [label="gini = 0.0\nsamples = 11\nvalue = [11, 0]\nclass = 0", fillcolor="#e58139"] ;
6 -> 8 ;
9 [label="gini = 0.219\nsamples = 8\nvalue = [7, 1]\nclass = 0", fillcolor="#e99355"] ;
3 -> 9 ;
10 [label="dpf <= 0.49\ngini = 0.274\nsamples = 128\nvalue = [107, 21]\nclass = 0", fillcolor="#ea9a60"] ;
2 -> 10 ;
11 [label="diastolic <= 81.0\ngini = 0.188\nsamples = 76\nvalue = [68, 8]\nclass = 0", fillcolor="#e89050"] ;
10 -> 11 ;
12 [label="triceps <= 32.5\ngini = 0.134\nsamples = 69\nvalue = [64, 5]\nclass = 0", fillcolor="#e78b48"] ;
11 -> 12 ;
13 [label="dpf <= 0.281\ngini = 0.194\nsamples = 46\nvalue = [41, 5]\nclass = 0", fillcolor="#e89051"] ;
12 -> 13 ;
14 [label="pregnancies <= 2.5\ngini = 0.311\nsamples = 26\nvalue = [21, 5]\nclass = 0", fillcolor="#eb9f68"] ;
13 -> 14 ;
15 [label="pregnancies <= 0.5\ngini = 0.208\nsamples = 17\nvalue = [15, 2]\nclass = 0", fillcolor="#e89253"] ;
14 -> 15 ;
16 [label="gini = 0.375\nsamples = 8\nvalue = [6, 2]\nclass = 0", fillcolor="#eeab7b"] ;
15 -> 16 ;
17 [label="gini = 0.0\nsamples = 9\nvalue = [9, 0]\nclass = 0", fillcolor="#e58139"] ;
15 -> 17 ;
18 [label="gini = 0.444\nsamples = 9\nvalue = [6, 3]\nclass = 0", fillcolor="#f2c09c"] ;
14 -> 18 ;
19 [label="gini = 0.0\nsamples = 20\nvalue = [20, 0]\nclass = 0", fillcolor="#e58139"] ;
13 -> 19 ;
20 [label="gini = 0.0\nsamples = 23\nvalue = [23, 0]\nclass = 0", fillcolor="#e58139"] ;
12 -> 20 ;
21 [label="gini = 0.49\nsamples = 7\nvalue = [4, 3]\nclass = 0", fillcolor="#f8e0ce"] ;
11 -> 21 ;
22 [label="bmi <= 32.7\ngini = 0.375\nsamples = 52\nvalue = [39, 13]\nclass = 0", fillcolor="#eeab7b"] ;
10 -> 22 ;
23 [label="gini = 0.153\nsamples = 12\nvalue = [11, 1]\nclass = 0", fillcolor="#e78c4b"] ;
22 -> 23 ;
24 [label="diastolic <= 69.0\ngini = 0.42\nsamples = 40\nvalue = [28, 12]\nclass = 0", fillcolor="#f0b78e"] ;
22 -> 24 ;
25 [label="bmi <= 34.85\ngini = 0.486\nsamples = 24\nvalue = [14, 10]\nclass = 0", fillcolor="#f8dbc6"] ;
24 -> 25 ;
26 [label="gini = 0.408\nsamples = 7\nvalue = [2, 5]\nclass = 1", fillcolor="#88c4ef"] ;
25 -> 26 ;
27 [label="diastolic <= 61.0\ngini = 0.415\nsamples = 17\nvalue = [12, 5]\nclass = 0", fillcolor="#f0b58b"] ;
25 -> 27 ;
28 [label="gini = 0.245\nsamples = 7\nvalue = [6, 1]\nclass = 0", fillcolor="#e9965a"] ;
27 -> 28 ;
29 [label="gini = 0.48\nsamples = 10\nvalue = [6, 4]\nclass = 0", fillcolor="#f6d5bd"] ;
27 -> 29 ;
30 [label="diastolic <= 79.0\ngini = 0.219\nsamples = 16\nvalue = [14, 2]\nclass = 0", fillcolor="#e99355"] ;
24 -> 30 ;
31 [label="gini = 0.0\nsamples = 8\nvalue = [8, 0]\nclass = 0", fillcolor="#e58139"] ;
30 -> 31 ;
32 [label="gini = 0.375\nsamples = 8\nvalue = [6, 2]\nclass = 0", fillcolor="#eeab7b"] ;
30 -> 32 ;
33 [label="dpf <= 0.192\ngini = 0.5\nsamples = 96\nvalue = [48, 48]\nclass = 0", fillcolor="#ffffff"] ;
1 -> 33 ;
34 [label="gini = 0.0\nsamples = 7\nvalue = [7, 0]\nclass = 0", fillcolor="#e58139"] ;
33 -> 34 ;
35 [label="bmi <= 28.8\ngini = 0.497\nsamples = 89\nvalue = [41, 48]\nclass = 1", fillcolor="#e2f1fb"] ;
33 -> 35 ;
36 [label="age <= 23.5\ngini = 0.32\nsamples = 20\nvalue = [16, 4]\nclass = 0", fillcolor="#eca06a"] ;
35 -> 36 ;
37 [label="gini = 0.142\nsamples = 13\nvalue = [12, 1]\nclass = 0", fillcolor="#e78c49"] ;
36 -> 37 ;
38 [label="gini = 0.49\nsamples = 7\nvalue = [4, 3]\nclass = 0", fillcolor="#f8e0ce"] ;
36 -> 38 ;
39 [label="diastolic <= 61.0\ngini = 0.462\nsamples = 69\nvalue = [25, 44]\nclass = 1", fillcolor="#aad5f4"] ;
35 -> 39 ;
40 [label="gini = 0.0\nsamples = 11\nvalue = [0, 11]\nclass = 1", fillcolor="#399de5"] ;
39 -> 40 ;
41 [label="glucose <= 165.5\ngini = 0.49\nsamples = 58\nvalue = [25, 33]\nclass = 1", fillcolor="#cfe7f9"] ;
39 -> 41 ;
42 [label="bmi <= 41.8\ngini = 0.485\nsamples = 41\nvalue = [24, 17]\nclass = 0", fillcolor="#f7dac5"] ;
41 -> 42 ;
43 [label="diastolic <= 81.0\ngini = 0.436\nsamples = 28\nvalue = [19, 9]\nclass = 0", fillcolor="#f1bd97"] ;
42 -> 43 ;
44 [label="dpf <= 0.539\ngini = 0.495\nsamples = 20\nvalue = [11, 9]\nclass = 0", fillcolor="#fae8db"] ;
43 -> 44 ;
45 [label="gini = 0.444\nsamples = 12\nvalue = [8, 4]\nclass = 0", fillcolor="#f2c09c"] ;
44 -> 45 ;
46 [label="gini = 0.469\nsamples = 8\nvalue = [3, 5]\nclass = 1", fillcolor="#b0d8f5"] ;
44 -> 46 ;
47 [label="gini = 0.0\nsamples = 8\nvalue = [8, 0]\nclass = 0", fillcolor="#e58139"] ;
43 -> 47 ;
48 [label="gini = 0.473\nsamples = 13\nvalue = [5, 8]\nclass = 1", fillcolor="#b5daf5"] ;
42 -> 48 ;
49 [label="dpf <= 0.49\ngini = 0.111\nsamples = 17\nvalue = [1, 16]\nclass = 1", fillcolor="#45a3e7"] ;
41 -> 49 ;
50 [label="gini = 0.245\nsamples = 7\nvalue = [1, 6]\nclass = 1", fillcolor="#5aade9"] ;
49 -> 50 ;
51 [label="gini = 0.0\nsamples = 10\nvalue = [0, 10]\nclass = 1", fillcolor="#399de5"] ;
49 -> 51 ;
52 [label="bmi <= 27.35\ngini = 0.5\nsamples = 401\nvalue = [204, 197]\nclass = 0", fillcolor="#fefbf8"] ;
0 -> 52 [labeldistance=2.5, labelangle=-45, headlabel="False"] ;
53 [label="insulin <= 131.0\ngini = 0.31\nsamples = 73\nvalue = [59, 14]\nclass = 0", fillcolor="#eb9f68"] ;
52 -> 53 ;
54 [label="bmi <= 24.55\ngini = 0.133\nsamples = 14\nvalue = [13, 1]\nclass = 0", fillcolor="#e78b48"] ;
53 -> 54 ;
55 [label="gini = 0.0\nsamples = 7\nvalue = [7, 0]\nclass = 0", fillcolor="#e58139"] ;
54 -> 55 ;
56 [label="gini = 0.245\nsamples = 7\nvalue = [6, 1]\nclass = 0", fillcolor="#e9965a"] ;
54 -> 56 ;
57 [label="bmi <= 23.25\ngini = 0.344\nsamples = 59\nvalue = [46, 13]\nclass = 0", fillcolor="#eca571"] ;
53 -> 57 ;
58 [label="gini = 0.0\nsamples = 13\nvalue = [13, 0]\nclass = 0", fillcolor="#e58139"] ;
57 -> 58 ;
59 [label="glucose <= 147.5\ngini = 0.405\nsamples = 46\nvalue = [33, 13]\nclass = 0", fillcolor="#efb387"] ;
57 -> 59 ;
60 [label="dpf <= 0.254\ngini = 0.202\nsamples = 35\nvalue = [31, 4]\nclass = 0", fillcolor="#e89153"] ;
59 -> 60 ;
61 [label="gini = 0.0\nsamples = 13\nvalue = [13, 0]\nclass = 0", fillcolor="#e58139"] ;
60 -> 61 ;
62 [label="dpf <= 0.38\ngini = 0.298\nsamples = 22\nvalue = [18, 4]\nclass = 0", fillcolor="#eb9d65"] ;
60 -> 62 ;
63 [label="gini = 0.49\nsamples = 7\nvalue = [4, 3]\nclass = 0", fillcolor="#f8e0ce"] ;
62 -> 63 ;
64 [label="pregnancies <= 5.5\ngini = 0.124\nsamples = 15\nvalue = [14, 1]\nclass = 0", fillcolor="#e78a47"] ;
62 -> 64 ;
65 [label="gini = 0.0\nsamples = 8\nvalue = [8, 0]\nclass = 0", fillcolor="#e58139"] ;
64 -> 65 ;
66 [label="gini = 0.245\nsamples = 7\nvalue = [6, 1]\nclass = 0", fillcolor="#e9965a"] ;
64 -> 66 ;
67 [label="gini = 0.298\nsamples = 11\nvalue = [2, 9]\nclass = 1", fillcolor="#65b3eb"] ;
59 -> 67 ;
68 [label="glucose <= 110.5\ngini = 0.493\nsamples = 328\nvalue = [145, 183]\nclass = 1", fillcolor="#d6ebfa"] ;
52 -> 68 ;
69 [label="insulin <= 88.0\ngini = 0.414\nsamples = 99\nvalue = [70, 29]\nclass = 0", fillcolor="#f0b58b"] ;
68 -> 69 ;
70 [label="gini = 0.0\nsamples = 19\nvalue = [19, 0]\nclass = 0", fillcolor="#e58139"] ;
69 -> 70 ;
71 [label="dpf <= 0.625\ngini = 0.462\nsamples = 80\nvalue = [51, 29]\nclass = 0", fillcolor="#f4c9aa"] ;
69 -> 71 ;
72 [label="age <= 53.5\ngini = 0.354\nsamples = 61\nvalue = [47, 14]\nclass = 0", fillcolor="#eda774"] ;
71 -> 72 ;
73 [label="bmi <= 38.9\ngini = 0.384\nsamples = 54\nvalue = [40, 14]\nclass = 0", fillcolor="#eead7e"] ;
72 -> 73 ;
74 [label="triceps <= 31.5\ngini = 0.34\nsamples = 46\nvalue = [36, 10]\nclass = 0", fillcolor="#eca470"] ;
73 -> 74 ;
75 [label="glucose <= 93.0\ngini = 0.394\nsamples = 37\nvalue = [27, 10]\nclass = 0", fillcolor="#efb082"] ;
74 -> 75 ;
76 [label="pregnancies <= 7.5\ngini = 0.117\nsamples = 16\nvalue = [15, 1]\nclass = 0", fillcolor="#e78946"] ;
75 -> 76 ;
77 [label="gini = 0.0\nsamples = 9\nvalue = [9, 0]\nclass = 0", fillcolor="#e58139"] ;
76 -> 77 ;
78 [label="gini = 0.245\nsamples = 7\nvalue = [6, 1]\nclass = 0", fillcolor="#e9965a"] ;
76 -> 78 ;
79 [label="glucose <= 104.5\ngini = 0.49\nsamples = 21\nvalue = [12, 9]\nclass = 0", fillcolor="#f8e0ce"] ;
75 -> 79 ;
80 [label="gini = 0.497\nsamples = 13\nvalue = [6, 7]\nclass = 1", fillcolor="#e3f1fb"] ;
79 -> 80 ;
81 [label="gini = 0.375\nsamples = 8\nvalue = [6, 2]\nclass = 0", fillcolor="#eeab7b"] ;
79 -> 81 ;
82 [label="gini = 0.0\nsamples = 9\nvalue = [9, 0]\nclass = 0", fillcolor="#e58139"] ;
74 -> 82 ;
83 [label="gini = 0.5\nsamples = 8\nvalue = [4, 4]\nclass = 0", fillcolor="#ffffff"] ;
73 -> 83 ;
84 [label="gini = 0.0\nsamples = 7\nvalue = [7, 0]\nclass = 0", fillcolor="#e58139"] ;
72 -> 84 ;
85 [label="pregnancies <= 6.5\ngini = 0.332\nsamples = 19\nvalue = [4, 15]\nclass = 1", fillcolor="#6eb7ec"] ;
71 -> 85 ;
86 [label="gini = 0.48\nsamples = 10\nvalue = [4, 6]\nclass = 1", fillcolor="#bddef6"] ;
85 -> 86 ;
87 [label="gini = 0.0\nsamples = 9\nvalue = [0, 9]\nclass = 1", fillcolor="#399de5"] ;
85 -> 87 ;
88 [label="glucose <= 157.5\ngini = 0.44\nsamples = 229\nvalue = [75, 154]\nclass = 1", fillcolor="#99cdf2"] ;
68 -> 88 ;
89 [label="age <= 41.5\ngini = 0.481\nsamples = 157\nvalue = [63, 94]\nclass = 1", fillcolor="#bedff6"] ;
88 -> 89 ;
90 [label="bmi <= 40.9\ngini = 0.498\nsamples = 94\nvalue = [44, 50]\nclass = 1", fillcolor="#e7f3fc"] ;
89 -> 90 ;
91 [label="dpf <= 0.857\ngini = 0.496\nsamples = 79\nvalue = [43, 36]\nclass = 0", fillcolor="#fbeadf"] ;
90 -> 91 ;
92 [label="glucose <= 121.5\ngini = 0.485\nsamples = 70\nvalue = [41, 29]\nclass = 0", fillcolor="#f7dac5"] ;
91 -> 92 ;
93 [label="pregnancies <= 6.5\ngini = 0.472\nsamples = 21\nvalue = [8, 13]\nclass = 1", fillcolor="#b3d9f5"] ;
92 -> 93 ;
94 [label="gini = 0.5\nsamples = 14\nvalue = [7, 7]\nclass = 0", fillcolor="#ffffff"] ;
93 -> 94 ;
95 [label="gini = 0.245\nsamples = 7\nvalue = [1, 6]\nclass = 1", fillcolor="#5aade9"] ;
93 -> 95 ;
96 [label="diastolic <= 73.0\ngini = 0.44\nsamples = 49\nvalue = [33, 16]\nclass = 0", fillcolor="#f2be99"] ;
92 -> 96 ;
97 [label="diastolic <= 69.0\ngini = 0.491\nsamples = 23\nvalue = [13, 10]\nclass = 0", fillcolor="#f9e2d1"] ;
96 -> 97 ;
98 [label="gini = 0.444\nsamples = 12\nvalue = [8, 4]\nclass = 0", fillcolor="#f2c09c"] ;
97 -> 98 ;
99 [label="gini = 0.496\nsamples = 11\nvalue = [5, 6]\nclass = 1", fillcolor="#deeffb"] ;
97 -> 99 ;
100 [label="glucose <= 136.5\ngini = 0.355\nsamples = 26\nvalue = [20, 6]\nclass = 0", fillcolor="#eda774"] ;
96 -> 100 ;
101 [label="gini = 0.426\nsamples = 13\nvalue = [9, 4]\nclass = 0", fillcolor="#f1b991"] ;
100 -> 101 ;
102 [label="gini = 0.26\nsamples = 13\nvalue = [11, 2]\nclass = 0", fillcolor="#ea985d"] ;
100 -> 102 ;
103 [label="gini = 0.346\nsamples = 9\nvalue = [2, 7]\nclass = 1", fillcolor="#72b9ec"] ;
91 -> 103 ;
104 [label="bmi <= 43.75\ngini = 0.124\nsamples = 15\nvalue = [1, 14]\nclass = 1", fillcolor="#47a4e7"] ;
90 -> 104 ;
105 [label="gini = 0.245\nsamples = 7\nvalue = [1, 6]\nclass = 1", fillcolor="#5aade9"] ;
104 -> 105 ;
106 [label="gini = 0.0\nsamples = 8\nvalue = [0, 8]\nclass = 1", fillcolor="#399de5"] ;
104 -> 106 ;
107 [label="dpf <= 0.225\ngini = 0.421\nsamples = 63\nvalue = [19, 44]\nclass = 1", fillcolor="#8ec7f0"] ;
89 -> 107 ;
108 [label="gini = 0.463\nsamples = 11\nvalue = [7, 4]\nclass = 0", fillcolor="#f4c9aa"] ;
107 -> 108 ;
109 [label="age <= 59.5\ngini = 0.355\nsamples = 52\nvalue = [12, 40]\nclass = 1", fillcolor="#74baed"] ;
107 -> 109 ;
110 [label="glucose <= 127.5\ngini = 0.292\nsamples = 45\nvalue = [8, 37]\nclass = 1", fillcolor="#64b2eb"] ;
109 -> 110 ;
111 [label="diastolic <= 83.0\ngini = 0.42\nsamples = 20\nvalue = [6, 14]\nclass = 1", fillcolor="#8ec7f0"] ;
110 -> 111 ;
112 [label="gini = 0.26\nsamples = 13\nvalue = [2, 11]\nclass = 1", fillcolor="#5dafea"] ;
111 -> 112 ;
113 [label="gini = 0.49\nsamples = 7\nvalue = [4, 3]\nclass = 0", fillcolor="#f8e0ce"] ;
111 -> 113 ;
114 [label="glucose <= 145.5\ngini = 0.147\nsamples = 25\nvalue = [2, 23]\nclass = 1", fillcolor="#4aa6e7"] ;
110 -> 114 ;
115 [label="gini = 0.0\nsamples = 14\nvalue = [0, 14]\nclass = 1", fillcolor="#399de5"] ;
114 -> 115 ;
116 [label="gini = 0.298\nsamples = 11\nvalue = [2, 9]\nclass = 1", fillcolor="#65b3eb"] ;
114 -> 116 ;
117 [label="gini = 0.49\nsamples = 7\nvalue = [4, 3]\nclass = 0", fillcolor="#f8e0ce"] ;
109 -> 117 ;
118 [label="age <= 44.5\ngini = 0.278\nsamples = 72\nvalue = [12, 60]\nclass = 1", fillcolor="#61b1ea"] ;
88 -> 118 ;
119 [label="glucose <= 188.5\ngini = 0.194\nsamples = 46\nvalue = [5, 41]\nclass = 1", fillcolor="#51a9e8"] ;
118 -> 119 ;
120 [label="age <= 36.5\ngini = 0.102\nsamples = 37\nvalue = [2, 35]\nclass = 1", fillcolor="#44a3e6"] ;
119 -> 120 ;
121 [label="gini = 0.0\nsamples = 20\nvalue = [0, 20]\nclass = 1", fillcolor="#399de5"] ;
120 -> 121 ;
122 [label="bmi <= 35.3\ngini = 0.208\nsamples = 17\nvalue = [2, 15]\nclass = 1", fillcolor="#53aae8"] ;
120 -> 122 ;
123 [label="gini = 0.408\nsamples = 7\nvalue = [2, 5]\nclass = 1", fillcolor="#88c4ef"] ;
122 -> 123 ;
124 [label="gini = 0.0\nsamples = 10\nvalue = [0, 10]\nclass = 1", fillcolor="#399de5"] ;
122 -> 124 ;
125 [label="gini = 0.444\nsamples = 9\nvalue = [3, 6]\nclass = 1", fillcolor="#9ccef2"] ;
119 -> 125 ;
126 [label="triceps <= 29.077\ngini = 0.393\nsamples = 26\nvalue = [7, 19]\nclass = 1", fillcolor="#82c1ef"] ;
118 -> 126 ;
127 [label="gini = 0.198\nsamples = 9\nvalue = [1, 8]\nclass = 1", fillcolor="#52a9e8"] ;
126 -> 127 ;
128 [label="dpf <= 0.242\ngini = 0.457\nsamples = 17\nvalue = [6, 11]\nclass = 1", fillcolor="#a5d2f3"] ;
126 -> 128 ;
129 [label="gini = 0.49\nsamples = 7\nvalue = [3, 4]\nclass = 1", fillcolor="#cee6f8"] ;
128 -> 129 ;
130 [label="gini = 0.42\nsamples = 10\nvalue = [3, 7]\nclass = 1", fillcolor="#8ec7f0"] ;
128 -> 130 ;
}